{
    "id": "b5597a64-aca7-4b64-885e-c57db50cd79f",
    "modelJSON": {
        "sizes": [
            74,
            37,
            4
        ],
        "layers": [
            {
                "0": {},
                "1": {},
                "2": {},
                "3": {},
                "4": {},
                "5": {},
                "6": {},
                "7": {},
                "8": {},
                "9": {},
                "10": {},
                "11": {},
                "12": {},
                "13": {},
                "14": {},
                "15": {},
                "16": {},
                "17": {},
                "18": {},
                "19": {},
                "20": {},
                "21": {},
                "22": {},
                "23": {},
                "24": {},
                "25": {},
                "26": {},
                "27": {},
                "28": {},
                "29": {},
                "30": {},
                "31": {},
                "32": {},
                "33": {},
                "34": {},
                "35": {},
                "36": {},
                "37": {},
                "38": {},
                "39": {},
                "40": {},
                "41": {},
                "42": {},
                "43": {},
                "44": {},
                "45": {},
                "46": {},
                "47": {},
                "48": {},
                "49": {},
                "50": {},
                "51": {},
                "52": {},
                "53": {},
                "54": {},
                "55": {},
                "56": {},
                "57": {},
                "58": {},
                "59": {},
                "60": {},
                "61": {},
                "62": {},
                "63": {},
                "64": {},
                "65": {},
                "66": {},
                "67": {},
                "68": {},
                "69": {},
                "70": {},
                "71": {},
                "72": {},
                "73": {}
            },
            {
                "0": {
                    "bias": -0.17534765601158142,
                    "weights": {
                        "0": 0.020680680871009827,
                        "1": -0.1061512753367424,
                        "2": -0.4224059581756592,
                        "3": -0.1197359561920166,
                        "4": -0.01772293820977211,
                        "5": 0.24219781160354614,
                        "6": -0.3115776479244232,
                        "7": -0.139494851231575,
                        "8": 0.18257516622543335,
                        "9": 0.047811951488256454,
                        "10": -0.1654263585805893,
                        "11": -0.06253843754529953,
                        "12": -0.4459058940410614,
                        "13": -0.47222164273262024,
                        "14": 0.23067215085029602,
                        "15": -0.1403295397758484,
                        "16": -0.1982976347208023,
                        "17": -0.17585420608520508,
                        "18": -0.2514359652996063,
                        "19": 0.03459976240992546,
                        "20": 0.08443968743085861,
                        "21": -0.09893825650215149,
                        "22": -0.012270336970686913,
                        "23": -0.19285565614700317,
                        "24": 0.02635624259710312,
                        "25": 0.43863099813461304,
                        "26": 0.08736581355333328,
                        "27": 0.3160877227783203,
                        "28": -0.005420918110758066,
                        "29": 0.2781296968460083,
                        "30": 0.2772429585456848,
                        "31": 0.2060011923313141,
                        "32": 0.06643364578485489,
                        "33": 0.19115284085273743,
                        "34": -0.16650208830833435,
                        "35": -0.06988898664712906,
                        "36": -0.22515471279621124,
                        "37": -0.15230557322502136,
                        "38": -0.14697447419166565,
                        "39": 0.4377977252006531,
                        "40": 0.23323482275009155,
                        "41": 0.18817199766635895,
                        "42": 0.26828187704086304,
                        "43": 0.02039579302072525,
                        "44": -0.11782766133546829,
                        "45": 0.03555218502879143,
                        "46": 0.013805435970425606,
                        "47": -0.3627159893512726,
                        "48": 0.02709212899208069,
                        "49": -0.017970100045204163,
                        "50": 0.24046757817268372,
                        "51": 0.12690608203411102,
                        "52": 0.18539035320281982,
                        "53": -0.05126326531171799,
                        "54": -0.11225561052560806,
                        "55": 0.07314804941415787,
                        "56": -0.2377575784921646,
                        "57": 0.004048554226756096,
                        "58": -0.1179957389831543,
                        "59": -0.007102213334292173,
                        "60": 0.028509680181741714,
                        "61": 0.16851818561553955,
                        "62": 0.3807387053966522,
                        "63": 0.14995789527893066,
                        "64": 0.3602944314479828,
                        "65": -0.3640008270740509,
                        "66": -0.11238773912191391,
                        "67": -0.2328624725341797,
                        "68": 0.5747759342193604,
                        "69": 0.391789048910141,
                        "70": 0.2427150458097458,
                        "71": 0.23633813858032227,
                        "72": 0.29702410101890564,
                        "73": 0.13146792352199554
                    }
                },
                "1": {
                    "bias": -0.12962907552719116,
                    "weights": {
                        "0": -0.12145158648490906,
                        "1": 0.15441343188285828,
                        "2": -0.0609896183013916,
                        "3": -0.33100706338882446,
                        "4": -0.2779344916343689,
                        "5": -0.10700620710849762,
                        "6": -0.11935944855213165,
                        "7": 0.15749971568584442,
                        "8": -0.08499623090028763,
                        "9": -0.4949771761894226,
                        "10": -0.27224308252334595,
                        "11": -0.0784052386879921,
                        "12": -0.1122349351644516,
                        "13": 0.060256507247686386,
                        "14": -0.08190705627202988,
                        "15": 0.5142796635627747,
                        "16": -0.11223980784416199,
                        "17": 0.1133723109960556,
                        "18": 0.0691908672451973,
                        "19": 0.22708699107170105,
                        "20": 0.16721995174884796,
                        "21": 0.1977664679288864,
                        "22": -0.01383121032267809,
                        "23": -0.0013105933321639895,
                        "24": -0.09013756364583969,
                        "25": -0.17511701583862305,
                        "26": 0.1858750581741333,
                        "27": 0.09457209706306458,
                        "28": 0.18756072223186493,
                        "29": 0.00712243327870965,
                        "30": -0.1263561248779297,
                        "31": 0.010289352387189865,
                        "32": -0.08288554102182388,
                        "33": -0.126971036195755,
                        "34": 0.17554892599582672,
                        "35": 0.09473585337400436,
                        "36": -0.012831066735088825,
                        "37": 0.12283561378717422,
                        "38": -0.1166892871260643,
                        "39": -0.11114583164453506,
                        "40": -0.09524624794721603,
                        "41": -0.2924516499042511,
                        "42": -0.17918454110622406,
                        "43": -0.07548689097166061,
                        "44": -0.10778703540563583,
                        "45": 0.07277091592550278,
                        "46": 0.19703912734985352,
                        "47": 0.15277442336082458,
                        "48": 0.057582516223192215,
                        "49": -0.01935037225484848,
                        "50": 0.15564905107021332,
                        "51": 0.014751717448234558,
                        "52": -0.10022343695163727,
                        "53": -0.09889460355043411,
                        "54": 0.0379914715886116,
                        "55": -0.11630593240261078,
                        "56": 0.023180391639471054,
                        "57": 0.042927779257297516,
                        "58": 0.08362408727407455,
                        "59": -0.10436998307704926,
                        "60": -0.1298827975988388,
                        "61": 0.24381838738918304,
                        "62": -0.050376299768686295,
                        "63": 0.04519498720765114,
                        "64": -0.02768273837864399,
                        "65": -0.012587549164891243,
                        "66": -0.07565890997648239,
                        "67": 0.05747342109680176,
                        "68": -0.24705393612384796,
                        "69": -0.2135986089706421,
                        "70": 0.03900797665119171,
                        "71": -0.28870487213134766,
                        "72": 0.07807886600494385,
                        "73": -0.2791048586368561
                    }
                },
                "2": {
                    "bias": 0.03554739058017731,
                    "weights": {
                        "0": 0.019593318924307823,
                        "1": -0.11168533563613892,
                        "2": 0.3162565529346466,
                        "3": -0.08410487323999405,
                        "4": -0.38265928626060486,
                        "5": -0.28366968035697937,
                        "6": 0.040609221905469894,
                        "7": -0.13823704421520233,
                        "8": -0.1264398992061615,
                        "9": -0.5580999851226807,
                        "10": -0.22315695881843567,
                        "11": -0.14815528690814972,
                        "12": 0.2918928563594818,
                        "13": 0.07722394168376923,
                        "14": -0.18459270894527435,
                        "15": 0.4878503978252411,
                        "16": 0.3305865526199341,
                        "17": 0.07430361211299896,
                        "18": 0.22053967416286469,
                        "19": -0.14960463345050812,
                        "20": 0.1744980663061142,
                        "21": 0.07754170894622803,
                        "22": -0.07326831668615341,
                        "23": 0.009877021424472332,
                        "24": 0.33629149198532104,
                        "25": -0.1025998592376709,
                        "26": -0.07478048652410507,
                        "27": -0.2398921549320221,
                        "28": 0.051263339817523956,
                        "29": -0.3445596396923065,
                        "30": -0.30575132369995117,
                        "31": -0.1837645024061203,
                        "32": 0.03527874872088432,
                        "33": -0.18112120032310486,
                        "34": 0.17702852189540863,
                        "35": 0.18292498588562012,
                        "36": 0.4844452738761902,
                        "37": 0.11604322493076324,
                        "38": -0.07405658066272736,
                        "39": -0.08588859438896179,
                        "40": 0.09610854834318161,
                        "41": -0.4121147096157074,
                        "42": -0.4463944137096405,
                        "43": 0.25551101565361023,
                        "44": 0.23066338896751404,
                        "45": 0.18767109513282776,
                        "46": -0.11450587213039398,
                        "47": 0.19309598207473755,
                        "48": -0.14522796869277954,
                        "49": 0.1663707047700882,
                        "50": 0.2681259214878082,
                        "51": -0.03659556806087494,
                        "52": -0.0874113142490387,
                        "53": -0.051750920712947845,
                        "54": -0.036246705800294876,
                        "55": -0.11432072520256042,
                        "56": 0.07425814121961594,
                        "57": 0.14280687272548676,
                        "58": 0.24415074288845062,
                        "59": 0.16772720217704773,
                        "60": 0.06660046428442001,
                        "61": -0.12972590327262878,
                        "62": -0.4008267819881439,
                        "63": -0.33341604471206665,
                        "64": -0.42846930027008057,
                        "65": -0.05564083158969879,
                        "66": 0.22534145414829254,
                        "67": 0.034142035990953445,
                        "68": -0.572671115398407,
                        "69": -0.14601735770702362,
                        "70": -0.08215273916721344,
                        "71": -0.04529639333486557,
                        "72": -0.10506168007850647,
                        "73": -0.11193126440048218
                    }
                },
                "3": {
                    "bias": -0.025964196771383286,
                    "weights": {
                        "0": -0.1971554160118103,
                        "1": -0.17572201788425446,
                        "2": 0.13287962973117828,
                        "3": -0.13601849973201752,
                        "4": 0.14476914703845978,
                        "5": 0.10936620086431503,
                        "6": -0.2896551191806793,
                        "7": -0.313741534948349,
                        "8": 0.21384727954864502,
                        "9": 0.2696465253829956,
                        "10": -0.08537466824054718,
                        "11": -0.152000293135643,
                        "12": -0.19030536711215973,
                        "13": -0.30640116333961487,
                        "14": 0.10617294907569885,
                        "15": 0.025900376960635185,
                        "16": -0.320736825466156,
                        "17": -0.1564749777317047,
                        "18": 0.26286688446998596,
                        "19": 0.014582536183297634,
                        "20": -0.19277729094028473,
                        "21": -0.22822068631649017,
                        "22": 0.058370109647512436,
                        "23": -0.12118113040924072,
                        "24": 0.14923152327537537,
                        "25": 0.1378309428691864,
                        "26": -0.042662691324949265,
                        "27": 0.20272503793239594,
                        "28": 0.027809342369437218,
                        "29": 0.11884219199419022,
                        "30": 0.17021338641643524,
                        "31": -0.17546360194683075,
                        "32": -0.24016855657100677,
                        "33": -0.06495029479265213,
                        "34": -0.050910547375679016,
                        "35": -0.06280100345611572,
                        "36": 0.004796910099685192,
                        "37": -0.10837439447641373,
                        "38": 0.003229256719350815,
                        "39": 0.28175434470176697,
                        "40": -0.2684093415737152,
                        "41": 0.17414231598377228,
                        "42": 0.14770840108394623,
                        "43": -0.0893196314573288,
                        "44": 0.1619480550289154,
                        "45": 0.024421796202659607,
                        "46": 0.0505814291536808,
                        "47": -0.281617134809494,
                        "48": -0.009089566767215729,
                        "49": -0.07552201300859451,
                        "50": -0.22052115201950073,
                        "51": 0.04913576692342758,
                        "52": -0.04440459981560707,
                        "53": -0.21991699934005737,
                        "54": -0.024158716201782227,
                        "55": -0.20420436561107635,
                        "56": -0.019198143854737282,
                        "57": 0.09123701602220535,
                        "58": -0.04852057248353958,
                        "59": -0.0970778837800026,
                        "60": -0.02132289484143257,
                        "61": -0.2526707649230957,
                        "62": 0.3468429148197174,
                        "63": 0.14763706922531128,
                        "64": 0.14208295941352844,
                        "65": 0.031780462712049484,
                        "66": 0.20778092741966248,
                        "67": -0.16951514780521393,
                        "68": 0.13545137643814087,
                        "69": 0.00531584769487381,
                        "70": -0.022773856297135353,
                        "71": 0.050611358135938644,
                        "72": 0.19280481338500977,
                        "73": -0.013148874044418335
                    }
                },
                "4": {
                    "bias": -0.2754550278186798,
                    "weights": {
                        "0": -0.09833694994449615,
                        "1": 0.08619315922260284,
                        "2": 0.010230560787022114,
                        "3": 0.07963519543409348,
                        "4": 0.3107069134712219,
                        "5": 0.0035417345352470875,
                        "6": 0.1555456519126892,
                        "7": 0.12901107966899872,
                        "8": -0.04891623929142952,
                        "9": 0.0572451651096344,
                        "10": 0.23679564893245697,
                        "11": 0.135127454996109,
                        "12": -0.1400134563446045,
                        "13": 0.023022880777716637,
                        "14": -0.015880152583122253,
                        "15": 0.030148876830935478,
                        "16": 0.059743061661720276,
                        "17": -0.1704983413219452,
                        "18": 0.16456910967826843,
                        "19": -0.060993440449237823,
                        "20": -0.051008496433496475,
                        "21": -0.42864173650741577,
                        "22": 0.1191355362534523,
                        "23": 0.17334286868572235,
                        "24": 0.005943725351244211,
                        "25": -0.11954774707555771,
                        "26": 0.20186299085617065,
                        "27": 0.05304761603474617,
                        "28": 0.00626378133893013,
                        "29": 0.24237504601478577,
                        "30": 0.14265963435173035,
                        "31": -0.2080516517162323,
                        "32": -0.15318052470684052,
                        "33": 0.15826305747032166,
                        "34": -0.05261966958642006,
                        "35": -0.14533746242523193,
                        "36": 0.026906035840511322,
                        "37": -0.02291850745677948,
                        "38": 0.07038180530071259,
                        "39": 0.032409947365522385,
                        "40": -0.17310090363025665,
                        "41": 0.16394275426864624,
                        "42": -0.16549375653266907,
                        "43": 0.15203648805618286,
                        "44": 0.19950227439403534,
                        "45": -0.30328699946403503,
                        "46": -0.2443186640739441,
                        "47": 0.029087189584970474,
                        "48": -0.16928358376026154,
                        "49": -0.14345094561576843,
                        "50": -0.24979861080646515,
                        "51": -0.1356564611196518,
                        "52": -0.18785713613033295,
                        "53": -0.03363994508981705,
                        "54": -0.09939093142747879,
                        "55": -0.1869339644908905,
                        "56": -0.06134800985455513,
                        "57": -0.13170120120048523,
                        "58": -0.030060231685638428,
                        "59": 0.009044517762959003,
                        "60": -0.20792411267757416,
                        "61": -0.23091286420822144,
                        "62": 0.06097590923309326,
                        "63": 0.20246009528636932,
                        "64": 0.23460504412651062,
                        "65": -0.01774379424750805,
                        "66": -0.048631373792886734,
                        "67": 0.23749394714832306,
                        "68": 0.15123386681079865,
                        "69": 0.19952392578125,
                        "70": -0.07354315370321274,
                        "71": -0.016915801912546158,
                        "72": 0.14432521164417267,
                        "73": 0.20966830849647522
                    }
                },
                "5": {
                    "bias": -0.015020766295492649,
                    "weights": {
                        "0": -0.15830744802951813,
                        "1": -0.2257995903491974,
                        "2": 0.07715540379285812,
                        "3": 0.191891148686409,
                        "4": 0.08315946161746979,
                        "5": -0.026275768876075745,
                        "6": -0.3018863797187805,
                        "7": 0.08159039169549942,
                        "8": 0.07065961509943008,
                        "9": 0.25391316413879395,
                        "10": 0.060598041862249374,
                        "11": 0.0036221027839928865,
                        "12": -0.07390128821134567,
                        "13": -0.05759873986244202,
                        "14": 0.20483613014221191,
                        "15": -0.13074028491973877,
                        "16": -0.08303172886371613,
                        "17": -0.306938499212265,
                        "18": -0.21987226605415344,
                        "19": 0.0696914792060852,
                        "20": -0.10951437056064606,
                        "21": 0.04766416922211647,
                        "22": 0.04108107089996338,
                        "23": 0.05002652853727341,
                        "24": -0.1123894602060318,
                        "25": -0.10054288804531097,
                        "26": 0.11402440816164017,
                        "27": -0.10901778936386108,
                        "28": -0.23305240273475647,
                        "29": 0.15081296861171722,
                        "30": 0.1658906638622284,
                        "31": 0.14496693015098572,
                        "32": -0.0909058004617691,
                        "33": -0.09678327292203903,
                        "34": 0.03139761462807655,
                        "35": -0.09401502460241318,
                        "36": -0.08155827969312668,
                        "37": 0.004693817347288132,
                        "38": -0.21804259717464447,
                        "39": -0.013987498357892036,
                        "40": 0.090896837413311,
                        "41": 0.12064345180988312,
                        "42": 0.1351580023765564,
                        "43": -0.13302716612815857,
                        "44": 0.1286938190460205,
                        "45": 0.06269364058971405,
                        "46": 0.009540094062685966,
                        "47": 0.11595413088798523,
                        "48": -0.16275763511657715,
                        "49": -0.09999720007181168,
                        "50": 0.07116203755140305,
                        "51": -0.1410127431154251,
                        "52": -0.04387464001774788,
                        "53": 0.09979836642742157,
                        "54": 0.08186089992523193,
                        "55": -0.010853847488760948,
                        "56": 0.06127201393246651,
                        "57": -0.005381683353334665,
                        "58": -0.15494827926158905,
                        "59": 0.15925398468971252,
                        "60": 0.08267359435558319,
                        "61": -0.011962266638875008,
                        "62": 0.174814835190773,
                        "63": -0.010873240418732166,
                        "64": 0.29369792342185974,
                        "65": 0.014565187506377697,
                        "66": -0.10983529686927795,
                        "67": -0.19713060557842255,
                        "68": 0.20434409379959106,
                        "69": -0.06232331693172455,
                        "70": 0.006762462668120861,
                        "71": 0.1844974011182785,
                        "72": 0.02189498580992222,
                        "73": 0.20763708651065826
                    }
                },
                "6": {
                    "bias": -0.24132800102233887,
                    "weights": {
                        "0": 0.2512075901031494,
                        "1": 0.3380756974220276,
                        "2": 0.1725281924009323,
                        "3": 0.35563021898269653,
                        "4": 0.5752245783805847,
                        "5": 0.25700104236602783,
                        "6": 0.12653324007987976,
                        "7": 0.3721252977848053,
                        "8": -0.7186585068702698,
                        "9": 0.4638846516609192,
                        "10": 0.4581424593925476,
                        "11": 0.34198373556137085,
                        "12": 0.353712260723114,
                        "13": 0.6872320771217346,
                        "14": 0.043862126767635345,
                        "15": -0.32589080929756165,
                        "16": 0.556535542011261,
                        "17": -0.33121436834335327,
                        "18": -0.3987821638584137,
                        "19": 0.02026529423892498,
                        "20": -0.19338950514793396,
                        "21": 0.16957597434520721,
                        "22": -0.1969868689775467,
                        "23": -0.27160122990608215,
                        "24": -0.5063723921775818,
                        "25": -0.4502187669277191,
                        "26": -0.27326542139053345,
                        "27": -0.3695663809776306,
                        "28": -0.14889615774154663,
                        "29": 0.06759891659021378,
                        "30": 0.1314186155796051,
                        "31": 0.310089111328125,
                        "32": 0.17555543780326843,
                        "33": -0.24402257800102234,
                        "34": -0.4942839443683624,
                        "35": 0.13340076804161072,
                        "36": -0.46221303939819336,
                        "37": -0.042886558920145035,
                        "38": -0.19357237219810486,
                        "39": -0.4252568781375885,
                        "40": -0.10672274976968765,
                        "41": 0.3387114703655243,
                        "42": 0.06847678869962692,
                        "43": -0.27984893321990967,
                        "44": -0.26465994119644165,
                        "45": -0.05068505182862282,
                        "46": -0.23621869087219238,
                        "47": 0.484953910112381,
                        "48": -0.054286256432533264,
                        "49": 0.4487798810005188,
                        "50": -0.4030645191669464,
                        "51": -0.04824716970324516,
                        "52": 0.16887956857681274,
                        "53": 0.09610061347484589,
                        "54": 0.4875543415546417,
                        "55": 0.3904140889644623,
                        "56": 0.170705646276474,
                        "57": -0.21146522462368011,
                        "58": -0.12999989092350006,
                        "59": -0.20335640013217926,
                        "60": 0.03263048455119133,
                        "61": 0.28406617045402527,
                        "62": -0.1690332591533661,
                        "63": -0.3016159236431122,
                        "64": -0.4201247990131378,
                        "65": 0.7055864334106445,
                        "66": -0.10414226353168488,
                        "67": -0.33903568983078003,
                        "68": -0.23785127699375153,
                        "69": 0.024123957380652428,
                        "70": -0.06874378025531769,
                        "71": -0.10891702026128769,
                        "72": 0.06697390228509903,
                        "73": 0.07332060486078262
                    }
                },
                "7": {
                    "bias": -0.02323243021965027,
                    "weights": {
                        "0": 0.005984931252896786,
                        "1": -0.015111271291971207,
                        "2": 0.2686050832271576,
                        "3": -0.30051422119140625,
                        "4": -0.46180790662765503,
                        "5": -0.24247443675994873,
                        "6": 0.2953706681728363,
                        "7": 0.21238794922828674,
                        "8": 0.2177407443523407,
                        "9": -0.48780161142349243,
                        "10": -0.2732691466808319,
                        "11": -0.14650309085845947,
                        "12": 0.027125148102641106,
                        "13": -0.2089429497718811,
                        "14": -0.4015423059463501,
                        "15": 0.5371648073196411,
                        "16": 0.3793301284313202,
                        "17": 0.13783816993236542,
                        "18": 0.49788713455200195,
                        "19": -0.2602422535419464,
                        "20": -0.23671334981918335,
                        "21": -0.5747247338294983,
                        "22": 0.4753298759460449,
                        "23": 0.3469761610031128,
                        "24": 0.6856080889701843,
                        "25": -0.11801628768444061,
                        "26": 0.3813326358795166,
                        "27": -0.19638608396053314,
                        "28": 0.28446826338768005,
                        "29": -0.3119979500770569,
                        "30": -0.30995380878448486,
                        "31": -0.3876003921031952,
                        "32": -0.2814960181713104,
                        "33": 0.18061934411525726,
                        "34": 0.5590559840202332,
                        "35": -0.01670164056122303,
                        "36": 1.214857816696167,
                        "37": 0.2760438621044159,
                        "38": 0.15590356290340424,
                        "39": -0.24315491318702698,
                        "40": -0.6642494797706604,
                        "41": -0.41580212116241455,
                        "42": -0.5704028010368347,
                        "43": 0.5490738153457642,
                        "44": 0.442048579454422,
                        "45": -0.09905242919921875,
                        "46": -0.1597340703010559,
                        "47": 0.1985638290643692,
                        "48": -0.28170546889305115,
                        "49": -0.12703432142734528,
                        "50": -0.49849048256874084,
                        "51": -0.43758249282836914,
                        "52": -0.42367398738861084,
                        "53": -0.47986504435539246,
                        "54": 0.15748320519924164,
                        "55": -0.6364567875862122,
                        "56": 0.08193378150463104,
                        "57": 0.03065737523138523,
                        "58": -0.11281519383192062,
                        "59": -0.11538853496313095,
                        "60": -0.22113369405269623,
                        "61": -0.5640215873718262,
                        "62": -0.1555556356906891,
                        "63": -0.2723965048789978,
                        "64": -0.5098451375961304,
                        "65": -0.0744129866361618,
                        "66": 0.3378632068634033,
                        "67": 0.4305427074432373,
                        "68": -0.378325492143631,
                        "69": -0.4547342360019684,
                        "70": -0.10606590658426285,
                        "71": -0.15618661046028137,
                        "72": -0.13675113022327423,
                        "73": -0.32605502009391785
                    }
                },
                "8": {
                    "bias": -0.021888859570026398,
                    "weights": {
                        "0": 0.1582655906677246,
                        "1": 0.18901847302913666,
                        "2": 0.0967218428850174,
                        "3": -0.3193379342556,
                        "4": -0.4294528365135193,
                        "5": -0.37471315264701843,
                        "6": 0.15254342555999756,
                        "7": 0.061065562069416046,
                        "8": -0.30192333459854126,
                        "9": -0.5565823912620544,
                        "10": -0.03151076287031174,
                        "11": -0.37986326217651367,
                        "12": -0.10970085114240646,
                        "13": 0.47453582286834717,
                        "14": -0.08562090992927551,
                        "15": 0.40338701009750366,
                        "16": 0.14458408951759338,
                        "17": -0.02786955051124096,
                        "18": -0.23422293365001678,
                        "19": 0.2953491806983948,
                        "20": 0.14764663577079773,
                        "21": 0.37561914324760437,
                        "22": -0.12883040308952332,
                        "23": 0.0449642650783062,
                        "24": -0.10263222455978394,
                        "25": -0.09105820208787918,
                        "26": 0.018107904121279716,
                        "27": 0.1124265193939209,
                        "28": -0.15427283942699432,
                        "29": -0.3430645167827606,
                        "30": -0.2561938166618347,
                        "31": 0.29977947473526,
                        "32": 0.350303590297699,
                        "33": -0.18959294259548187,
                        "34": 0.1435539871454239,
                        "35": 0.04721463844180107,
                        "36": -0.30395036935806274,
                        "37": 0.0026025453116744757,
                        "38": 0.03174753859639168,
                        "39": -0.22681167721748352,
                        "40": 0.4914622902870178,
                        "41": -0.08804123103618622,
                        "42": -0.3874931335449219,
                        "43": -0.2753642201423645,
                        "44": -0.2958012521266937,
                        "45": 0.021448630839586258,
                        "46": 0.23624187707901,
                        "47": 0.07335610687732697,
                        "48": 0.32059746980667114,
                        "49": 0.23816102743148804,
                        "50": 0.23076073825359344,
                        "51": 0.09781414270401001,
                        "52": 0.18651074171066284,
                        "53": 0.4573874771595001,
                        "54": -0.12794800102710724,
                        "55": 0.48309019207954407,
                        "56": -0.26321941614151,
                        "57": 0.15420123934745789,
                        "58": 0.3774496614933014,
                        "59": 0.10266616940498352,
                        "60": 0.2978675663471222,
                        "61": 0.5944920778274536,
                        "62": -0.08783634752035141,
                        "63": -0.27167797088623047,
                        "64": -0.2905762195587158,
                        "65": -0.18257977068424225,
                        "66": 0.07197943329811096,
                        "67": 0.03329313546419144,
                        "68": -0.4058302342891693,
                        "69": -0.08166559040546417,
                        "70": -0.11737996339797974,
                        "71": -0.16738834977149963,
                        "72": -0.25603625178337097,
                        "73": -0.09019817411899567
                    }
                },
                "9": {
                    "bias": -0.0882783904671669,
                    "weights": {
                        "0": -0.3175523281097412,
                        "1": -0.005447074770927429,
                        "2": -0.13850969076156616,
                        "3": -0.18504174053668976,
                        "4": 0.08545207977294922,
                        "5": -0.15325284004211426,
                        "6": -0.25855377316474915,
                        "7": -0.24867703020572662,
                        "8": 0.5164667963981628,
                        "9": 0.01535845547914505,
                        "10": 0.06495821475982666,
                        "11": -0.21627385914325714,
                        "12": -0.25398939847946167,
                        "13": -0.3956763446331024,
                        "14": 0.08986115455627441,
                        "15": -0.05141410231590271,
                        "16": -0.35427024960517883,
                        "17": -0.02247343212366104,
                        "18": -0.018183447420597076,
                        "19": -0.018974503502249718,
                        "20": -0.11583113670349121,
                        "21": 0.07555361092090607,
                        "22": -0.012868030928075314,
                        "23": -0.09245726466178894,
                        "24": -0.16957169771194458,
                        "25": 0.1336972862482071,
                        "26": -0.04647689685225487,
                        "27": 0.3560181260108948,
                        "28": -0.09903720766305923,
                        "29": -0.01963219605386257,
                        "30": -0.07846171408891678,
                        "31": 0.09687114506959915,
                        "32": -0.04277915135025978,
                        "33": 0.1583724170923233,
                        "34": -0.2182243913412094,
                        "35": -0.13809292018413544,
                        "36": 0.00012816644448321313,
                        "37": -0.04710428789258003,
                        "38": 0.07702673226594925,
                        "39": 0.46489301323890686,
                        "40": 0.21732482314109802,
                        "41": 0.06814239919185638,
                        "42": 0.06331328302621841,
                        "43": 0.16279417276382446,
                        "44": -0.050617415457963943,
                        "45": -0.08008658140897751,
                        "46": 0.030397851020097733,
                        "47": -0.06778930127620697,
                        "48": -0.1082494780421257,
                        "49": -0.30280163884162903,
                        "50": 0.29457616806030273,
                        "51": -0.04485739767551422,
                        "52": 0.14847873151302338,
                        "53": 0.09398320317268372,
                        "54": -0.3745018541812897,
                        "55": 0.06968200206756592,
                        "56": -0.16568683087825775,
                        "57": 0.21118924021720886,
                        "58": 0.09826215356588364,
                        "59": 0.2668357193470001,
                        "60": 0.1404900848865509,
                        "61": 0.04075894132256508,
                        "62": 0.19026733934879303,
                        "63": 0.3522047698497772,
                        "64": 0.38955003023147583,
                        "65": -0.4120660424232483,
                        "66": -0.1295798122882843,
                        "67": -0.11602871119976044,
                        "68": 0.18730098009109497,
                        "69": 0.34869828820228577,
                        "70": 0.22388878464698792,
                        "71": 0.1355704665184021,
                        "72": 0.13669531047344208,
                        "73": 0.14099378883838654
                    }
                },
                "10": {
                    "bias": -0.17743991315364838,
                    "weights": {
                        "0": 0.08289254456758499,
                        "1": -0.14463084936141968,
                        "2": -0.1748184710741043,
                        "3": 0.28943315148353577,
                        "4": 0.5956258177757263,
                        "5": 0.4728839695453644,
                        "6": -0.26411348581314087,
                        "7": -0.1113974079489708,
                        "8": 0.3546069264411926,
                        "9": 0.6140871644020081,
                        "10": 0.04033134877681732,
                        "11": 0.06560029089450836,
                        "12": 0.010103222914040089,
                        "13": -0.6083446741104126,
                        "14": 0.18849867582321167,
                        "15": -0.34531137347221375,
                        "16": -0.02113194949924946,
                        "17": -0.287238746881485,
                        "18": -0.06821005791425705,
                        "19": -0.17133170366287231,
                        "20": -0.29875850677490234,
                        "21": -0.6764897704124451,
                        "22": 0.1966932862997055,
                        "23": 0.10750804841518402,
                        "24": -0.09253252297639847,
                        "25": 0.197389617562294,
                        "26": 0.007841232232749462,
                        "27": -0.0031163401436060667,
                        "28": 0.17437921464443207,
                        "29": 0.41365137696266174,
                        "30": 0.4707377254962921,
                        "31": -0.24403735995292664,
                        "32": -0.4299515187740326,
                        "33": 0.1977032870054245,
                        "34": -0.07898471504449844,
                        "35": -0.21981732547283173,
                        "36": 0.26093560457229614,
                        "37": 0.0039956653490662575,
                        "38": -0.1778096705675125,
                        "39": 0.25050413608551025,
                        "40": -0.4799795150756836,
                        "41": 0.22426332533359528,
                        "42": 0.41988152265548706,
                        "43": -0.05890925973653793,
                        "44": 0.23389524221420288,
                        "45": -0.34264543652534485,
                        "46": -0.2070404589176178,
                        "47": 0.05234445631504059,
                        "48": -0.11566216498613358,
                        "49": -0.19558897614479065,
                        "50": -0.4513700008392334,
                        "51": -0.11582417786121368,
                        "52": -0.28805094957351685,
                        "53": -0.21249587833881378,
                        "54": 0.1614609658718109,
                        "55": -0.4230332374572754,
                        "56": 0.24893559515476227,
                        "57": -0.0579461045563221,
                        "58": -0.3462013006210327,
                        "59": -0.1222461462020874,
                        "60": -0.3276155889034271,
                        "61": -0.5475914478302002,
                        "62": 0.40643730759620667,
                        "63": 0.3393893241882324,
                        "64": 0.5886967778205872,
                        "65": 0.40129509568214417,
                        "66": -0.1673731654882431,
                        "67": -0.1521306335926056,
                        "68": 0.6111128926277161,
                        "69": 0.37039414048194885,
                        "70": 0.3350096642971039,
                        "71": 0.29763472080230713,
                        "72": 0.17995861172676086,
                        "73": 0.2164754718542099
                    }
                },
                "11": {
                    "bias": -0.17386038601398468,
                    "weights": {
                        "0": -0.07876541465520859,
                        "1": 0.13543125987052917,
                        "2": -0.126626655459404,
                        "3": 0.46862760186195374,
                        "4": 0.8152966499328613,
                        "5": 0.6290687918663025,
                        "6": 0.03860560804605484,
                        "7": 0.4400149881839752,
                        "8": -0.029778629541397095,
                        "9": 0.7311949729919434,
                        "10": 0.4667603373527527,
                        "11": 0.42866477370262146,
                        "12": 0.18145599961280823,
                        "13": 0.12953129410743713,
                        "14": -0.2225726842880249,
                        "15": -0.3857898712158203,
                        "16": 0.38573864102363586,
                        "17": -0.33371275663375854,
                        "18": -0.2826111316680908,
                        "19": -0.2787807881832123,
                        "20": -0.1594226211309433,
                        "21": -0.22374823689460754,
                        "22": -0.1987946629524231,
                        "23": -0.15433743596076965,
                        "24": -0.39198970794677734,
                        "25": -0.14261406660079956,
                        "26": -0.21134115755558014,
                        "27": -0.18540705740451813,
                        "28": 0.02326321415603161,
                        "29": 0.27970266342163086,
                        "30": 0.10970041900873184,
                        "31": -0.2571944296360016,
                        "32": 0.10960976779460907,
                        "33": -0.2014750838279724,
                        "34": -0.35744038224220276,
                        "35": 0.021472208201885223,
                        "36": -0.3191441297531128,
                        "37": -0.2123219519853592,
                        "38": -0.22997909784317017,
                        "39": -0.029701584950089455,
                        "40": -0.3815942108631134,
                        "41": 0.3942457139492035,
                        "42": 0.3922024667263031,
                        "43": -0.20155122876167297,
                        "44": -0.11611475795507431,
                        "45": -0.10385061055421829,
                        "46": -0.06522360444068909,
                        "47": -0.02004491537809372,
                        "48": 0.09057404100894928,
                        "49": -0.018788347020745277,
                        "50": -0.2441658079624176,
                        "51": -0.14887870848178864,
                        "52": -0.021852297708392143,
                        "53": -0.06505144387483597,
                        "54": 0.20262964069843292,
                        "55": 0.08389242738485336,
                        "56": 0.25679850578308105,
                        "57": -0.32931506633758545,
                        "58": -0.17035335302352905,
                        "59": -0.1761140376329422,
                        "60": -0.005799123086035252,
                        "61": 0.039294492453336716,
                        "62": -0.06383714824914932,
                        "63": 0.07282103598117828,
                        "64": -0.030977347865700722,
                        "65": 0.6737059354782104,
                        "66": -0.3255676031112671,
                        "67": -0.20982787013053894,
                        "68": -0.012565459124743938,
                        "69": 0.11828761547803879,
                        "70": 0.03699956834316254,
                        "71": 0.17130248248577118,
                        "72": 0.08480013906955719,
                        "73": 0.07089036703109741
                    }
                },
                "12": {
                    "bias": -0.1083582192659378,
                    "weights": {
                        "0": 0.03721995651721954,
                        "1": 0.24029186367988586,
                        "2": -0.08971574157476425,
                        "3": 0.4992079436779022,
                        "4": 0.6408801078796387,
                        "5": 0.5181345343589783,
                        "6": 0.1525745540857315,
                        "7": 0.49001792073249817,
                        "8": -0.23967041075229645,
                        "9": 0.564015805721283,
                        "10": 0.22305601835250854,
                        "11": 0.10960211604833603,
                        "12": 0.3025590479373932,
                        "13": 0.19011960923671722,
                        "14": 0.0986180379986763,
                        "15": -0.6091370582580566,
                        "16": 0.33886706829071045,
                        "17": -0.31913262605667114,
                        "18": -0.16031086444854736,
                        "19": -0.16107013821601868,
                        "20": 0.024895671755075455,
                        "21": -0.16449551284313202,
                        "22": 0.024088462814688683,
                        "23": -0.07038123905658722,
                        "24": -0.14558760821819305,
                        "25": -0.10654493421316147,
                        "26": 0.09707476198673248,
                        "27": -0.15111395716667175,
                        "28": -0.10244707763195038,
                        "29": 0.08169634640216827,
                        "30": 0.2247305065393448,
                        "31": 0.10804664343595505,
                        "32": 0.016487551853060722,
                        "33": -0.2535015344619751,
                        "34": -0.3282126486301422,
                        "35": 0.20612473785877228,
                        "36": -0.6368023753166199,
                        "37": -0.16821131110191345,
                        "38": -0.18438194692134857,
                        "39": -0.1831691414117813,
                        "40": -0.20629774034023285,
                        "41": 0.1936214566230774,
                        "42": 0.3133499026298523,
                        "43": -0.30084922909736633,
                        "44": -0.32703152298927307,
                        "45": 0.005370429717004299,
                        "46": -0.1734340786933899,
                        "47": 0.2658907473087311,
                        "48": 0.028487594798207283,
                        "49": 0.14838510751724243,
                        "50": -0.30048778653144836,
                        "51": 0.25048527121543884,
                        "52": 0.2280953824520111,
                        "53": -0.061150673776865005,
                        "54": 0.48415035009384155,
                        "55": 0.22220677137374878,
                        "56": 0.309253454208374,
                        "57": -0.06044438108801842,
                        "58": -0.13905735313892365,
                        "59": -0.145086407661438,
                        "60": -0.13998955488204956,
                        "61": -0.00453010480850935,
                        "62": 0.01240147091448307,
                        "63": -0.10515595227479935,
                        "64": 0.14511288702487946,
                        "65": 0.4514121413230896,
                        "66": -0.19200308620929718,
                        "67": -0.14846350252628326,
                        "68": 0.02150079421699047,
                        "69": 0.13456034660339355,
                        "70": 0.037191249430179596,
                        "71": -0.0018543327460065484,
                        "72": -0.03298749402165413,
                        "73": -0.07465491443872452
                    }
                },
                "13": {
                    "bias": -0.15597860515117645,
                    "weights": {
                        "0": 0.09340840578079224,
                        "1": 0.13940687477588654,
                        "2": -0.21377098560333252,
                        "3": -0.0026030675508081913,
                        "4": -0.17207291722297668,
                        "5": -0.23129117488861084,
                        "6": 0.03699992969632149,
                        "7": 0.17080828547477722,
                        "8": -0.6764569878578186,
                        "9": -0.22699294984340668,
                        "10": -0.12897667288780212,
                        "11": -0.2521221339702606,
                        "12": 0.16660265624523163,
                        "13": 0.475675493478775,
                        "14": 0.17282138764858246,
                        "15": -0.10224442183971405,
                        "16": 0.21564330160617828,
                        "17": -0.1006256714463234,
                        "18": -0.336394727230072,
                        "19": 0.47546112537384033,
                        "20": -0.02460223063826561,
                        "21": 0.8148521780967712,
                        "22": -0.29458385705947876,
                        "23": -0.08686047047376633,
                        "24": -0.2807471454143524,
                        "25": -0.2822960615158081,
                        "26": -0.06792951375246048,
                        "27": 0.08468853682279587,
                        "28": -0.031172968447208405,
                        "29": -0.2932009994983673,
                        "30": 0.029475688934326172,
                        "31": 0.3035546839237213,
                        "32": 0.5031006336212158,
                        "33": -0.1806822419166565,
                        "34": -0.18352477252483368,
                        "35": 0.23870477080345154,
                        "36": -0.7425177693367004,
                        "37": 0.14899827539920807,
                        "38": -0.07660120725631714,
                        "39": -0.34693920612335205,
                        "40": 0.3927549421787262,
                        "41": 0.06938569247722626,
                        "42": -0.1575642079114914,
                        "43": -0.3678259551525116,
                        "44": -0.20413672924041748,
                        "45": 0.36332476139068604,
                        "46": 0.03818639740347862,
                        "47": 0.18922948837280273,
                        "48": 0.4600971043109894,
                        "49": 0.2290870100259781,
                        "50": 0.20930029451847076,
                        "51": 0.1514493077993393,
                        "52": 0.46565693616867065,
                        "53": 0.4805203378200531,
                        "54": -0.15013980865478516,
                        "55": 0.5201730132102966,
                        "56": -0.03976672142744064,
                        "57": 0.30918818712234497,
                        "58": 0.36186882853507996,
                        "59": 0.0972118228673935,
                        "60": 0.16395799815654755,
                        "61": 0.7128716707229614,
                        "62": -0.2458711713552475,
                        "63": -0.23823492228984833,
                        "64": -0.17523564398288727,
                        "65": -0.18736211955547333,
                        "66": -0.39107659459114075,
                        "67": -0.19093875586986542,
                        "68": -0.2183002084493637,
                        "69": -0.19421115517616272,
                        "70": -0.06630446016788483,
                        "71": -0.09030365943908691,
                        "72": -0.12046921253204346,
                        "73": -0.0663970336318016
                    }
                },
                "14": {
                    "bias": -0.18823333084583282,
                    "weights": {
                        "0": -0.23849916458129883,
                        "1": -0.050443846732378006,
                        "2": -0.18068794906139374,
                        "3": -0.19040198624134064,
                        "4": 0.25748303532600403,
                        "5": 0.14016591012477875,
                        "6": -0.0788908526301384,
                        "7": -0.0199755746871233,
                        "8": 0.31026691198349,
                        "9": 0.324787437915802,
                        "10": 0.07854441553354263,
                        "11": -0.019287601113319397,
                        "12": -0.14131714403629303,
                        "13": -0.37327784299850464,
                        "14": 0.21363966166973114,
                        "15": -0.25526806712150574,
                        "16": -0.08222437649965286,
                        "17": -0.17477495968341827,
                        "18": -0.09829424321651459,
                        "19": -0.2366744875907898,
                        "20": 0.08830398321151733,
                        "21": -0.12008576840162277,
                        "22": 0.169228658080101,
                        "23": 0.21094690263271332,
                        "24": -0.061613984405994415,
                        "25": 0.19845803081989288,
                        "26": 0.07416626811027527,
                        "27": 0.004973145667463541,
                        "28": -0.08098963648080826,
                        "29": 0.20305423438549042,
                        "30": -0.04602211341261864,
                        "31": -0.23622091114521027,
                        "32": -0.07380329072475433,
                        "33": 0.16531623899936676,
                        "34": 0.03814556822180748,
                        "35": -0.1592869609594345,
                        "36": -0.17244258522987366,
                        "37": -0.03063111938536167,
                        "38": 0.041014984250068665,
                        "39": 0.3716757893562317,
                        "40": -0.19256015121936798,
                        "41": 0.33897948265075684,
                        "42": 0.357088178396225,
                        "43": 0.19002246856689453,
                        "44": 0.10306698828935623,
                        "45": -0.1869622766971588,
                        "46": -0.10220560431480408,
                        "47": -0.04987658932805061,
                        "48": -0.2359294444322586,
                        "49": -0.004495486617088318,
                        "50": -0.3044339716434479,
                        "51": -0.10982657223939896,
                        "52": -0.17436690628528595,
                        "53": -0.13517235219478607,
                        "54": -0.1405390053987503,
                        "55": -0.10446397960186005,
                        "56": -0.07734657824039459,
                        "57": 0.04207339510321617,
                        "58": -0.04693514481186867,
                        "59": -0.13444401323795319,
                        "60": -0.0669068992137909,
                        "61": -0.2669849097728729,
                        "62": 0.09383925050497055,
                        "63": 0.16936150193214417,
                        "64": 0.3279383182525635,
                        "65": 0.20726579427719116,
                        "66": -0.1671183854341507,
                        "67": -0.07317085564136505,
                        "68": 0.09692813456058502,
                        "69": 0.28421446681022644,
                        "70": -0.019401900470256805,
                        "71": 0.2594532072544098,
                        "72": -0.06790346652269363,
                        "73": -0.022514954209327698
                    }
                },
                "15": {
                    "bias": -0.0469166524708271,
                    "weights": {
                        "0": -0.2878434956073761,
                        "1": -0.0971035361289978,
                        "2": -0.34375035762786865,
                        "3": 0.27154257893562317,
                        "4": 0.6121026277542114,
                        "5": 0.45861726999282837,
                        "6": -0.2521907091140747,
                        "7": 0.12430176883935928,
                        "8": 0.15618246793746948,
                        "9": 0.418405681848526,
                        "10": 0.34525245428085327,
                        "11": 0.13115844130516052,
                        "12": -0.088646799325943,
                        "13": -0.13274145126342773,
                        "14": 0.046872641891241074,
                        "15": -0.6347845792770386,
                        "16": -0.19737616181373596,
                        "17": -0.26678168773651123,
                        "18": -0.5599910020828247,
                        "19": 0.14466451108455658,
                        "20": 0.15492095053195953,
                        "21": 0.15427370369434357,
                        "22": -0.10825811326503754,
                        "23": -0.004601136315613985,
                        "24": -0.4596235454082489,
                        "25": -0.011023652739822865,
                        "26": -0.28752556443214417,
                        "27": 0.18321214616298676,
                        "28": -0.25646543502807617,
                        "29": 0.0323914960026741,
                        "30": 0.3411504626274109,
                        "31": -0.13663753867149353,
                        "32": -0.14202669262886047,
                        "33": 0.09690412133932114,
                        "34": -0.2682318091392517,
                        "35": 0.1248101070523262,
                        "36": -0.6287854909896851,
                        "37": 0.023723866790533066,
                        "38": 0.05057024210691452,
                        "39": 0.07668326050043106,
                        "40": 0.17739515006542206,
                        "41": 0.5763513445854187,
                        "42": 0.3512536585330963,
                        "43": -0.13973160088062286,
                        "44": -0.2561836838722229,
                        "45": -0.08292055875062943,
                        "46": -0.05627012252807617,
                        "47": 0.004557313397526741,
                        "48": 0.009049853309988976,
                        "49": 0.2218467742204666,
                        "50": -0.11040699481964111,
                        "51": -0.016877315938472748,
                        "52": 0.19142557680606842,
                        "53": 0.08302014321088791,
                        "54": 0.03060758113861084,
                        "55": 0.3939487040042877,
                        "56": -0.13840559124946594,
                        "57": 0.052201446145772934,
                        "58": 0.12312345206737518,
                        "59": 0.000762773328460753,
                        "60": -0.06498222798109055,
                        "61": 0.14819937944412231,
                        "62": 0.21306496858596802,
                        "63": 0.19306232035160065,
                        "64": 0.2704666554927826,
                        "65": 0.1785435527563095,
                        "66": -0.13065795600414276,
                        "67": -0.41760140657424927,
                        "68": 0.27421122789382935,
                        "69": 0.36451876163482666,
                        "70": 0.2314942330121994,
                        "71": 0.0841679498553276,
                        "72": 0.3250729739665985,
                        "73": 0.1785317212343216
                    }
                },
                "16": {
                    "bias": 0.2000555694103241,
                    "weights": {
                        "0": -0.3865881860256195,
                        "1": -0.24359150230884552,
                        "2": -0.04064718261361122,
                        "3": -0.4284915626049042,
                        "4": -0.24665281176567078,
                        "5": -0.1290311962366104,
                        "6": -0.19055189192295074,
                        "7": -0.7433742880821228,
                        "8": 1.031775951385498,
                        "9": -0.16961270570755005,
                        "10": -0.478036105632782,
                        "11": -0.22865508496761322,
                        "12": -0.479192316532135,
                        "13": -0.5055519938468933,
                        "14": 0.4441353678703308,
                        "15": 0.3770733177661896,
                        "16": -0.8146069645881653,
                        "17": 0.3445574939250946,
                        "18": 0.25820910930633545,
                        "19": 0.027940168976783752,
                        "20": 0.14767487347126007,
                        "21": 0.10469099879264832,
                        "22": 0.012457255274057388,
                        "23": 0.12319387495517731,
                        "24": 0.10733035951852798,
                        "25": 0.6666485071182251,
                        "26": -0.08320453017950058,
                        "27": 0.39195698499679565,
                        "28": -0.13561208546161652,
                        "29": -0.10289471596479416,
                        "30": -0.20439165830612183,
                        "31": 0.05650901049375534,
                        "32": -0.15715235471725464,
                        "33": 0.12630695104599,
                        "34": 0.3820827901363373,
                        "35": -0.43705204129219055,
                        "36": 0.4117095172405243,
                        "37": 0.08968003839254379,
                        "38": 0.037356097251176834,
                        "39": 0.5508257150650024,
                        "40": -0.10752146691083908,
                        "41": -0.03875011205673218,
                        "42": -0.13194672763347626,
                        "43": 0.2967129349708557,
                        "44": 0.1314910352230072,
                        "45": 0.2079620659351349,
                        "46": 0.11041814833879471,
                        "47": -0.2893427610397339,
                        "48": -0.25970765948295593,
                        "49": -0.4341943562030792,
                        "50": 0.5031980276107788,
                        "51": 0.007499925792217255,
                        "52": 0.09023795276880264,
                        "53": -0.07735268026590347,
                        "54": -0.5521867275238037,
                        "55": -0.022807162255048752,
                        "56": -0.39346227049827576,
                        "57": 0.3784908950328827,
                        "58": 0.3535439968109131,
                        "59": 0.08855801075696945,
                        "60": 0.2401527762413025,
                        "61": 0.18137796223163605,
                        "62": 0.4669435918331146,
                        "63": 0.30741605162620544,
                        "64": 0.5170159935951233,
                        "65": -0.6700848340988159,
                        "66": -0.027896780520677567,
                        "67": 0.08167819678783417,
                        "68": 0.6027294993400574,
                        "69": 0.18562039732933044,
                        "70": 0.4044390320777893,
                        "71": 0.2687693238258362,
                        "72": 0.23956634104251862,
                        "73": 0.0406891405582428
                    }
                },
                "17": {
                    "bias": -0.08596042543649673,
                    "weights": {
                        "0": 0.08907703310251236,
                        "1": 0.07815142720937729,
                        "2": -0.2879278063774109,
                        "3": 0.4842739999294281,
                        "4": 0.13814958930015564,
                        "5": -0.028500955551862717,
                        "6": 0.10536853224039078,
                        "7": 0.13262097537517548,
                        "8": -0.6375588774681091,
                        "9": 0.008126325905323029,
                        "10": 0.09015873819589615,
                        "11": -0.12816771864891052,
                        "12": 0.21398726105690002,
                        "13": 0.7496699094772339,
                        "14": 0.34119120240211487,
                        "15": -0.288071870803833,
                        "16": 0.24638429284095764,
                        "17": -0.05279188230633736,
                        "18": -0.7311483025550842,
                        "19": 0.29980817437171936,
                        "20": 0.26219674944877625,
                        "21": 0.741122841835022,
                        "22": -0.21192698180675507,
                        "23": -0.3336055874824524,
                        "24": -0.40210288763046265,
                        "25": -0.16350507736206055,
                        "26": -0.28219011425971985,
                        "27": 0.2169562578201294,
                        "28": -0.31372594833374023,
                        "29": 0.06015484780073166,
                        "30": -0.159122496843338,
                        "31": 0.37574708461761475,
                        "32": 0.19428667426109314,
                        "33": -0.47447341680526733,
                        "34": -0.40567412972450256,
                        "35": 0.10077650099992752,
                        "36": -0.9403919577598572,
                        "37": -0.18174314498901367,
                        "38": -0.20140571892261505,
                        "39": -0.24253496527671814,
                        "40": 0.5856155753135681,
                        "41": 0.0321090966463089,
                        "42": -0.023072989657521248,
                        "43": -0.5999090671539307,
                        "44": -0.35938429832458496,
                        "45": 0.19889964163303375,
                        "46": 0.13848812878131866,
                        "47": 0.21736818552017212,
                        "48": 0.4237299859523773,
                        "49": 0.5433964133262634,
                        "50": 0.2025306075811386,
                        "51": 0.427614688873291,
                        "52": 0.1814926415681839,
                        "53": 0.5242056846618652,
                        "54": -0.07217150181531906,
                        "55": 0.7773534655570984,
                        "56": -0.03402557224035263,
                        "57": 0.004521694965660572,
                        "58": 0.22744877636432648,
                        "59": 0.06165853887796402,
                        "60": 0.30079421401023865,
                        "61": 0.5611606240272522,
                        "62": -0.18231745064258575,
                        "63": 0.00914008915424347,
                        "64": -0.09389111399650574,
                        "65": -0.11275098472833633,
                        "66": -0.30622726678848267,
                        "67": -0.49589964747428894,
                        "68": -0.1421743482351303,
                        "69": 0.08139815181493759,
                        "70": -0.0659727230668068,
                        "71": 0.17118848860263824,
                        "72": 0.0492822490632534,
                        "73": -0.023241782560944557
                    }
                },
                "18": {
                    "bias": -0.1982107311487198,
                    "weights": {
                        "0": 0.003046239260584116,
                        "1": 0.24214191734790802,
                        "2": 0.09411530941724777,
                        "3": 0.2512633502483368,
                        "4": -0.008888691663742065,
                        "5": -0.06195489689707756,
                        "6": 0.05653856694698334,
                        "7": 0.25255724787712097,
                        "8": -0.42024874687194824,
                        "9": -0.19078271090984344,
                        "10": 0.18047884106636047,
                        "11": 0.011482871137559414,
                        "12": 0.13217826187610626,
                        "13": 0.5950566530227661,
                        "14": 0.19222499430179596,
                        "15": 0.050917234271764755,
                        "16": 0.13576705753803253,
                        "17": 0.11456430703401566,
                        "18": -0.22663606703281403,
                        "19": 0.2074144333600998,
                        "20": 0.23818401992321014,
                        "21": 0.6542491316795349,
                        "22": -0.19193993508815765,
                        "23": -0.22095085680484772,
                        "24": -0.5323541760444641,
                        "25": -0.3852638006210327,
                        "26": -0.05762278661131859,
                        "27": -0.024895835667848587,
                        "28": -0.23324573040008545,
                        "29": -0.22923429310321808,
                        "30": 0.07130535691976547,
                        "31": 0.22590689361095428,
                        "32": 0.33615928888320923,
                        "33": -0.3477573096752167,
                        "34": -0.13146720826625824,
                        "35": 0.11464103311300278,
                        "36": -0.731148898601532,
                        "37": -0.18934892117977142,
                        "38": -0.2014235109090805,
                        "39": -0.2015485018491745,
                        "40": 0.46690914034843445,
                        "41": -0.11820437014102936,
                        "42": 0.028113212436437607,
                        "43": -0.16714361310005188,
                        "44": -0.15891310572624207,
                        "45": 0.17156292498111725,
                        "46": 0.05326312407851219,
                        "47": 0.22084768116474152,
                        "48": 0.27060723304748535,
                        "49": 0.37102192640304565,
                        "50": 0.256455659866333,
                        "51": 0.2638324797153473,
                        "52": 0.26221731305122375,
                        "53": 0.35109058022499084,
                        "54": 0.3090417683124542,
                        "55": 0.5585628151893616,
                        "56": 0.2418651431798935,
                        "57": 0.22516536712646484,
                        "58": 0.2538929581642151,
                        "59": 0.09667284041643143,
                        "60": 0.0857493132352829,
                        "61": 0.45929354429244995,
                        "62": -0.24967917799949646,
                        "63": -0.21549378335475922,
                        "64": -0.45990774035453796,
                        "65": -0.047132592648267746,
                        "66": -0.03742525354027748,
                        "67": -0.09590242803096771,
                        "68": -0.3667077124118805,
                        "69": -0.07018129527568817,
                        "70": 0.014119311235845089,
                        "71": -0.22197844088077545,
                        "72": -0.06782770901918411,
                        "73": 0.042358577251434326
                    }
                },
                "19": {
                    "bias": 0.01984337717294693,
                    "weights": {
                        "0": -0.015422426164150238,
                        "1": -0.028016462922096252,
                        "2": -0.08584914356470108,
                        "3": -0.2933149039745331,
                        "4": -0.44090497493743896,
                        "5": -0.04611300304532051,
                        "6": -0.3323153555393219,
                        "7": -0.3166167438030243,
                        "8": 0.30977872014045715,
                        "9": -0.3128535747528076,
                        "10": -0.21142449975013733,
                        "11": -0.18084511160850525,
                        "12": -0.27598610520362854,
                        "13": -0.2012423872947693,
                        "14": -0.0002852102043107152,
                        "15": 0.4167042672634125,
                        "16": -0.46966761350631714,
                        "17": 0.11866696178913116,
                        "18": 0.24974866211414337,
                        "19": -0.006021285895258188,
                        "20": -0.032787568867206573,
                        "21": 0.17760440707206726,
                        "22": 0.20130041241645813,
                        "23": 0.159413680434227,
                        "24": 0.082551971077919,
                        "25": 0.2965744435787201,
                        "26": 0.06626403331756592,
                        "27": 0.1262047290802002,
                        "28": -0.1512531191110611,
                        "29": 0.07315627485513687,
                        "30": 0.08116195350885391,
                        "31": 0.11327314376831055,
                        "32": 0.11992014199495316,
                        "33": 0.1439359039068222,
                        "34": 0.2553520202636719,
                        "35": -0.31677722930908203,
                        "36": 0.23734915256500244,
                        "37": 0.24580052495002747,
                        "38": 0.0848788321018219,
                        "39": 0.32119813561439514,
                        "40": 0.18420256674289703,
                        "41": -0.27666381001472473,
                        "42": 0.06894266605377197,
                        "43": 0.13103319704532623,
                        "44": 0.17741897702217102,
                        "45": -0.09516198188066483,
                        "46": -0.09766274690628052,
                        "47": -0.07396090775728226,
                        "48": 0.09023445844650269,
                        "49": -0.24560858309268951,
                        "50": 0.0034670038148760796,
                        "51": 0.12846297025680542,
                        "52": 0.10623122751712799,
                        "53": 0.11085420846939087,
                        "54": -0.47153154015541077,
                        "55": -0.07102948427200317,
                        "56": -0.36626332998275757,
                        "57": 0.18739189207553864,
                        "58": 0.304753839969635,
                        "59": 0.06687664985656738,
                        "60": 0.09639735519886017,
                        "61": 0.00412525562569499,
                        "62": 0.050698719918727875,
                        "63": 0.20975151658058167,
                        "64": -0.01658313162624836,
                        "65": -0.21418654918670654,
                        "66": 0.04957103356719017,
                        "67": 0.18008577823638916,
                        "68": 0.28164878487586975,
                        "69": -0.015626335516572,
                        "70": -0.032380782067775726,
                        "71": 0.19969932734966278,
                        "72": -0.003648997750133276,
                        "73": 0.13710729777812958
                    }
                },
                "20": {
                    "bias": -0.2512521743774414,
                    "weights": {
                        "0": -0.09449605643749237,
                        "1": -0.16217119991779327,
                        "2": -0.113803930580616,
                        "3": -0.06664713472127914,
                        "4": -0.058316297829151154,
                        "5": -0.027611183002591133,
                        "6": -0.14867328107357025,
                        "7": -0.3396170139312744,
                        "8": 0.09544367343187332,
                        "9": -0.28007131814956665,
                        "10": -0.30872172117233276,
                        "11": -0.19371002912521362,
                        "12": -0.038534536957740784,
                        "13": 0.1787460297346115,
                        "14": 0.06148434057831764,
                        "15": 0.19770894944667816,
                        "16": -0.2918037474155426,
                        "17": 0.1132921501994133,
                        "18": -0.2056102752685547,
                        "19": 0.29693689942359924,
                        "20": 0.17082376778125763,
                        "21": 0.595132052898407,
                        "22": 0.011715042404830456,
                        "23": -0.29571980237960815,
                        "24": -0.3279149532318115,
                        "25": -0.033265214413404465,
                        "26": -0.26094725728034973,
                        "27": 0.1889372318983078,
                        "28": -0.06737245619297028,
                        "29": -0.09018071740865707,
                        "30": -0.13402122259140015,
                        "31": 0.07193537801504135,
                        "32": 0.15129593014717102,
                        "33": -0.20119066536426544,
                        "34": 0.06452624499797821,
                        "35": 0.13662004470825195,
                        "36": -0.47083088755607605,
                        "37": 0.14062415063381195,
                        "38": -0.059382032603025436,
                        "39": 0.037302009761333466,
                        "40": 0.4259656071662903,
                        "41": -0.05217539891600609,
                        "42": -0.09161446988582611,
                        "43": -0.1551511138677597,
                        "44": -0.37695977091789246,
                        "45": 0.298424631357193,
                        "46": 0.1201586201786995,
                        "47": 0.04351440444588661,
                        "48": 0.136079341173172,
                        "49": 0.12347906082868576,
                        "50": 0.36175015568733215,
                        "51": 0.24532964825630188,
                        "52": 0.3027092218399048,
                        "53": 0.3963594436645508,
                        "54": -0.2600726783275604,
                        "55": 0.2670546770095825,
                        "56": -0.2876306474208832,
                        "57": 0.021047472953796387,
                        "58": 0.15630553662776947,
                        "59": 0.16014795005321503,
                        "60": 0.31144800782203674,
                        "61": 0.23451301455497742,
                        "62": -0.022613713517785072,
                        "63": 0.25117406249046326,
                        "64": 0.20714698731899261,
                        "65": -0.4068787097930908,
                        "66": 0.04586871713399887,
                        "67": 0.01529223844408989,
                        "68": 0.16774286329746246,
                        "69": -0.07417374849319458,
                        "70": 0.2148897349834442,
                        "71": -0.027866315096616745,
                        "72": -0.04792768508195877,
                        "73": 0.12366874516010284
                    }
                },
                "21": {
                    "bias": -0.2008979320526123,
                    "weights": {
                        "0": 0.14814820885658264,
                        "1": 0.09613440930843353,
                        "2": 0.23520340025424957,
                        "3": -0.12977388501167297,
                        "4": -0.19685348868370056,
                        "5": -0.10906089097261429,
                        "6": 0.05552875995635986,
                        "7": 0.10908617824316025,
                        "8": 0.15728776156902313,
                        "9": -0.3567042350769043,
                        "10": -0.061874113976955414,
                        "11": 0.03826935216784477,
                        "12": -0.0025283554568886757,
                        "13": -0.18476542830467224,
                        "14": -0.3477167785167694,
                        "15": 0.5367406606674194,
                        "16": 0.101702019572258,
                        "17": 0.2427452802658081,
                        "18": 0.23400413990020752,
                        "19": -0.07489869743585587,
                        "20": -0.05779032036662102,
                        "21": -0.21216100454330444,
                        "22": 0.10789376497268677,
                        "23": 0.14866437017917633,
                        "24": 0.47451892495155334,
                        "25": -0.15027457475662231,
                        "26": 0.25338423252105713,
                        "27": -0.13339976966381073,
                        "28": 0.27729567885398865,
                        "29": -0.22613690793514252,
                        "30": -0.14827129244804382,
                        "31": -0.30557963252067566,
                        "32": -0.3023432791233063,
                        "33": 0.01821320317685604,
                        "34": 0.5105065107345581,
                        "35": -0.12811756134033203,
                        "36": 0.6308846473693848,
                        "37": 0.11014126241207123,
                        "38": 0.12411725521087646,
                        "39": -0.2846432030200958,
                        "40": -0.3051443099975586,
                        "41": -0.5038789510726929,
                        "42": -0.13877058029174805,
                        "43": 0.15017461776733398,
                        "44": 0.06131372228264809,
                        "45": -0.145412415266037,
                        "46": 0.028423989191651344,
                        "47": 0.15206271409988403,
                        "48": -0.1367926448583603,
                        "49": -0.023026272654533386,
                        "50": -0.21677681803703308,
                        "51": -0.17293931543827057,
                        "52": 0.052585430443286896,
                        "53": -0.2294207662343979,
                        "54": -0.1128096729516983,
                        "55": -0.17339590191841125,
                        "56": -0.08072789758443832,
                        "57": -0.153355672955513,
                        "58": -0.1958225965499878,
                        "59": 0.03760451450943947,
                        "60": -0.08855148404836655,
                        "61": -0.3070288300514221,
                        "62": -0.15687072277069092,
                        "63": -0.11268799006938934,
                        "64": -0.26602789759635925,
                        "65": 0.1773134469985962,
                        "66": 0.36679089069366455,
                        "67": 0.37429410219192505,
                        "68": -0.09535747021436691,
                        "69": -0.09573926776647568,
                        "70": -0.2171413004398346,
                        "71": -0.2419801503419876,
                        "72": -0.08336835354566574,
                        "73": 0.04644225165247917
                    }
                },
                "22": {
                    "bias": -0.11883844435214996,
                    "weights": {
                        "0": -0.14168044924736023,
                        "1": -0.02302592806518078,
                        "2": 0.08588534593582153,
                        "3": 0.11600413173437119,
                        "4": 0.0943995788693428,
                        "5": 0.15350662171840668,
                        "6": 0.0022385893389582634,
                        "7": 0.1835412085056305,
                        "8": 0.0011333846487104893,
                        "9": -0.1387135237455368,
                        "10": -0.11065629869699478,
                        "11": 0.05843517556786537,
                        "12": 0.02484183758497238,
                        "13": -0.08999241888523102,
                        "14": -0.23799574375152588,
                        "15": -0.05517900735139847,
                        "16": 0.34743764996528625,
                        "17": -0.07374797761440277,
                        "18": 0.24518686532974243,
                        "19": -0.08432219177484512,
                        "20": -0.23526255786418915,
                        "21": -0.3842948377132416,
                        "22": 0.04705736041069031,
                        "23": 0.015295574441552162,
                        "24": 0.07043963670730591,
                        "25": -0.17469583451747894,
                        "26": 0.14751705527305603,
                        "27": 0.022309180349111557,
                        "28": 0.28246164321899414,
                        "29": 0.049117401242256165,
                        "30": -0.03281063586473465,
                        "31": -0.04169361665844917,
                        "32": -0.29887011647224426,
                        "33": 0.10430692136287689,
                        "34": 0.18951362371444702,
                        "35": 0.24548621475696564,
                        "36": 0.38971906900405884,
                        "37": 0.05123201757669449,
                        "38": 0.15038785338401794,
                        "39": -0.1929602473974228,
                        "40": -0.08562132716178894,
                        "41": -0.13580025732517242,
                        "42": -0.007914388552308083,
                        "43": 0.01581137254834175,
                        "44": 0.0965915247797966,
                        "45": -0.14410389959812164,
                        "46": -0.2216198444366455,
                        "47": -0.07151371985673904,
                        "48": -0.16437272727489471,
                        "49": -0.07650279253721237,
                        "50": -0.36285051703453064,
                        "51": -0.2438519150018692,
                        "52": -0.2672324478626251,
                        "53": -0.09310852736234665,
                        "54": 0.2443598210811615,
                        "55": -0.13839946687221527,
                        "56": 0.26809459924697876,
                        "57": 0.09161251038312912,
                        "58": -0.15899969637393951,
                        "59": -0.18070994317531586,
                        "60": -0.13288308680057526,
                        "61": -0.3037082254886627,
                        "62": 0.04193438962101936,
                        "63": -0.30987223982810974,
                        "64": -0.19923736155033112,
                        "65": 0.33841949701309204,
                        "66": 0.05413970723748207,
                        "67": 0.20617128908634186,
                        "68": -0.27554598450660706,
                        "69": -0.010618459433317184,
                        "70": 0.08907382190227509,
                        "71": -0.14757156372070312,
                        "72": -0.11817242950201035,
                        "73": -0.16332422196865082
                    }
                },
                "23": {
                    "bias": -0.18766239285469055,
                    "weights": {
                        "0": 0.19703462719917297,
                        "1": 0.2054719179868698,
                        "2": -0.11213521659374237,
                        "3": 0.2585586607456207,
                        "4": 0.028940685093402863,
                        "5": 0.2467854917049408,
                        "6": 0.1652604639530182,
                        "7": 0.3376740515232086,
                        "8": -0.4505269229412079,
                        "9": 0.09299981594085693,
                        "10": 0.2837303876876831,
                        "11": -0.08814200013875961,
                        "12": 0.03622350096702576,
                        "13": 0.15721163153648376,
                        "14": -0.06266896426677704,
                        "15": -0.28523555397987366,
                        "16": 0.042211856693029404,
                        "17": -0.14440421760082245,
                        "18": -0.2194099873304367,
                        "19": -0.0964578166604042,
                        "20": -0.16385288536548615,
                        "21": -0.07860004156827927,
                        "22": 0.041543107479810715,
                        "23": 0.036778807640075684,
                        "24": -0.1395541876554489,
                        "25": -0.20306891202926636,
                        "26": 0.006323600187897682,
                        "27": -0.20688049495220184,
                        "28": 0.15424589812755585,
                        "29": 0.014405947178602219,
                        "30": -0.0774783045053482,
                        "31": 0.10990506410598755,
                        "32": -0.1829751431941986,
                        "33": -0.21562649309635162,
                        "34": -0.14478784799575806,
                        "35": 0.12718874216079712,
                        "36": -0.07540915906429291,
                        "37": 0.12328841537237167,
                        "38": -0.0763554498553276,
                        "39": -0.2947765588760376,
                        "40": -0.01936701312661171,
                        "41": 0.15535905957221985,
                        "42": -0.023638149723410606,
                        "43": 0.06711970269680023,
                        "44": 0.02332688868045807,
                        "45": 0.10972972959280014,
                        "46": -0.15688179433345795,
                        "47": 0.26699480414390564,
                        "48": 0.14032448828220367,
                        "49": 0.13536576926708221,
                        "50": -0.2879599630832672,
                        "51": -0.1364310085773468,
                        "52": 0.03338740020990372,
                        "53": 0.04737313464283943,
                        "54": 0.11891237646341324,
                        "55": 0.250095933675766,
                        "56": -0.08415617048740387,
                        "57": -0.15914449095726013,
                        "58": -0.0767127051949501,
                        "59": 0.09326579421758652,
                        "60": 0.030677922070026398,
                        "61": -0.12613891065120697,
                        "62": 0.02500239573419094,
                        "63": -0.18777857720851898,
                        "64": 0.009699790738523006,
                        "65": 0.08776301145553589,
                        "66": 0.016123183071613312,
                        "67": -0.0979476273059845,
                        "68": -0.20257678627967834,
                        "69": -0.1878168135881424,
                        "70": 0.04499400407075882,
                        "71": 0.1513628363609314,
                        "72": 0.17410026490688324,
                        "73": -0.0037670305464416742
                    }
                },
                "24": {
                    "bias": -0.1893564611673355,
                    "weights": {
                        "0": -0.05581056699156761,
                        "1": -0.0005094115040265024,
                        "2": -0.15247434377670288,
                        "3": 0.3088875114917755,
                        "4": 0.07489580661058426,
                        "5": 0.07530523836612701,
                        "6": -0.11342503875494003,
                        "7": -0.010995338670909405,
                        "8": -0.25930145382881165,
                        "9": 0.2560639977455139,
                        "10": -0.007476575672626495,
                        "11": 0.17017565667629242,
                        "12": 0.13538801670074463,
                        "13": 0.27283287048339844,
                        "14": -0.22277198731899261,
                        "15": 0.07620665431022644,
                        "16": 0.09650447219610214,
                        "17": -0.22985443472862244,
                        "18": -0.2677735984325409,
                        "19": -0.10861477255821228,
                        "20": 0.04642195999622345,
                        "21": -0.1490730345249176,
                        "22": 0.009258579462766647,
                        "23": -0.21132762730121613,
                        "24": 0.007159536704421043,
                        "25": -0.2659178376197815,
                        "26": 0.15777413547039032,
                        "27": -0.10492965579032898,
                        "28": -0.0034493859857320786,
                        "29": -0.03404872119426727,
                        "30": 0.19936276972293854,
                        "31": 0.011541194282472134,
                        "32": 0.016825223341584206,
                        "33": -0.23825405538082123,
                        "34": -0.11688457429409027,
                        "35": -0.10652567446231842,
                        "36": -0.26955676078796387,
                        "37": -0.08214111626148224,
                        "38": -0.08490327000617981,
                        "39": -0.10633793473243713,
                        "40": 0.14266180992126465,
                        "41": 0.1849343329668045,
                        "42": -0.08085214346647263,
                        "43": -0.151991069316864,
                        "44": 0.11018761992454529,
                        "45": 0.0027031791396439075,
                        "46": 0.12349438667297363,
                        "47": 0.22265541553497314,
                        "48": 0.19232110679149628,
                        "49": 0.10471285879611969,
                        "50": -0.11500931531190872,
                        "51": -0.13262194395065308,
                        "52": -0.1348511427640915,
                        "53": 0.1800641268491745,
                        "54": 0.03900926932692528,
                        "55": 0.07066945731639862,
                        "56": 0.1614123433828354,
                        "57": 0.05407971143722534,
                        "58": 0.011930717155337334,
                        "59": 0.17497406899929047,
                        "60": 0.03977155312895775,
                        "61": 0.001926012453623116,
                        "62": 0.025377770885825157,
                        "63": -0.21367281675338745,
                        "64": -0.3292691111564636,
                        "65": 0.2667540907859802,
